<?xml version="1.0"?>
<opencv_storage>
<stage0>
  <maxWeakCount>21</maxWeakCount>
  <stageThreshold>-1.1283869743347168e+00</stageThreshold>
  <weakClassifiers>
    <_>
      <internalNodes>
        0 -1 34663 -4.6383567154407501e-02</internalNodes>
      <leafValues>
        7.1275168657302856e-01 -2.2671155631542206e-01</leafValues></_>
    <_>
      <internalNodes>
        0 -1 46950 1.3759193941950798e-02</internalNodes>
      <leafValues>
        -2.2943219542503357e-01 4.7866758704185486e-01</leafValues></_>
    <_>
      <internalNodes>
        0 -1 40213 -1.0276343673467636e-02</internalNodes>
      <leafValues>
        6.3483506441116333e-01 -1.3192717730998993e-01</leafValues></_>
    <_>
      <internalNodes>
        0 -1 42477 -5.0472490489482880e-02</internalNodes>
      <leafValues>
        -6.6270619630813599e-01 1.2457469850778580e-01</leafValues></_>
    <_>
      <internalNodes>
        0 -1 15381 1.7080739140510559e-02</internalNodes>
      <leafValues>
        -8.9266009628772736e-02 7.0221340656280518e-01</leafValues></_>
    <_>
      <internalNodes>
        0 -1 47536 4.6338257379829884e-03</internalNodes>
      <leafValues>
        -1.5676556527614594e-01 3.7876975536346436e-01</leafValues></_>
    <_>
      <internalNodes>
        0 -1 52192 -5.0396788865327835e-03</internalNodes>
      <leafValues>
        4.9042233824729919e-01 -1.9564807415008545e-01</leafValues></_>
    <_>
      <internalNodes>
        0 -1 4853 -2.1114980336278677e-04</internalNodes>
      <leafValues>
        -3.5442900657653809e-01 1.8124511837959290e-01</leafValues></_>
    <_>
      <internalNodes>
        0 -1 69681 -3.8103800266981125e-02</internalNodes>
      <leafValues>
        6.5893989801406860e-01 -8.8888064026832581e-02</leafValues></_>
    <_>
      <internalNodes>
        0 -1 66895 2.2690847516059875e-02</internalNodes>
      <leafValues>
        -1.4907473325729370e-01 4.1522079706192017e-01</leafValues></_>
    <_>
      <internalNodes>
        0 -1 69641 -2.3630946874618530e-02</internalNodes>
      <leafValues>
        8.4185367822647095e-01 -6.7827202379703522e-02</leafValues></_>
    <_>
      <internalNodes>
        0 -1 3321 -2.7116676210425794e-04</internalNodes>
      <leafValues>
        -3.4717071056365967e-01 1.8491828441619873e-01</leafValues></_>
    <_>
      <internalNodes>
        0 -1 78430 3.9800489321351051e-04</internalNodes>
      <leafValues>
        1.6993960738182068e-01 -3.0575227737426758e-01</leafValues></_>
    <_>
      <internalNodes>
        0 -1 19144 -1.9626742228865623e-02</internalNodes>
      <leafValues>
        6.6808378696441650e-01 -8.2506500184535980e-02</leafValues></_>
    <_>
      <internalNodes>
        0 -1 12112 6.1473166570067406e-03</internalNodes>
      <leafValues>
        -1.5235514938831329e-01 3.9251258969306946e-01</leafValues></_>
    <_>
      <internalNodes>
        0 -1 24825 8.1996217370033264e-02</internalNodes>
      <leafValues>
        8.6432196199893951e-02 -6.5757274627685547e-01</leafValues></_>
    <_>
      <internalNodes>
        0 -1 3731 -6.4223773777484894e-02</internalNodes>
      <leafValues>
        -5.1817554235458374e-01 1.3662245869636536e-01</leafValues></_>
    <_>
      <internalNodes>
        0 -1 78447 -8.6783329606987536e-05</internalNodes>
      <leafValues>
        -2.8705888986587524e-01 1.6769142448902130e-01</leafValues></_>
    <_>
      <internalNodes>
        0 -1 75277 -5.2850507199764252e-02</internalNodes>
      <leafValues>
        5.4274153709411621e-01 -9.9165506660938263e-02</leafValues></_>
    <_>
      <internalNodes>
        0 -1 1 6.9419067585840821e-04</internalNodes>
      <leafValues>
        1.1522993445396423e-01 -4.8883467912673950e-01</leafValues></_>
    <_>
      <internalNodes>
        0 -1 1 -1.1408106365706772e-04</internalNodes>
      <leafValues>
        -3.0553781986236572e-01 1.9993372261524200e-01</leafValues></_></weakClassifiers></stage0>
</opencv_storage>
