<?xml version="1.0"?>
<opencv_storage>
<stage8>
  <maxWeakCount>43</maxWeakCount>
  <stageThreshold>-9.5981889963150024e-01</stageThreshold>
  <weakClassifiers>
    <_>
      <internalNodes>
        0 -1 45506 -8.0130554735660553e-02</internalNodes>
      <leafValues>
        7.7521616220474243e-01 -6.5137617290019989e-02</leafValues></_>
    <_>
      <internalNodes>
        0 -1 78343 5.4184813052415848e-04</internalNodes>
      <leafValues>
        1.5520747005939484e-01 -4.2948108911514282e-01</leafValues></_>
    <_>
      <internalNodes>
        0 -1 35199 5.8204606175422668e-02</internalNodes>
      <leafValues>
        -1.7699824273586273e-01 5.7065486907958984e-01</leafValues></_>
    <_>
      <internalNodes>
        0 -1 28586 -2.8465986251831055e-02</internalNodes>
      <leafValues>
        4.0845632553100586e-01 -1.0777878761291504e-01</leafValues></_>
    <_>
      <internalNodes>
        0 -1 0 7.8491977183148265e-04</internalNodes>
      <leafValues>
        6.1381276696920395e-02 -4.6245256066322327e-01</leafValues></_>
    <_>
      <internalNodes>
        0 -1 78343 -7.5113272760063410e-04</internalNodes>
      <leafValues>
        -4.0760621428489685e-01 1.1097627133131027e-01</leafValues></_>
    <_>
      <internalNodes>
        0 -1 25647 -1.0287329554557800e-02</internalNodes>
      <leafValues>
        4.4040146470069885e-01 -9.4570092856884003e-02</leafValues></_>
    <_>
      <internalNodes>
        0 -1 743 -5.4052309133112431e-04</internalNodes>
      <leafValues>
        -3.4411048889160156e-01 1.0179652273654938e-01</leafValues></_>
    <_>
      <internalNodes>
        0 -1 46578 9.7551837563514709e-02</internalNodes>
      <leafValues>
        -3.9059221744537354e-02 7.3228251934051514e-01</leafValues></_>
    <_>
      <internalNodes>
        0 -1 69792 -4.4758278818335384e-05</internalNodes>
      <leafValues>
        1.8596179783344269e-01 -1.7431938648223877e-01</leafValues></_>
    <_>
      <internalNodes>
        0 -1 1435 -2.1524357725866139e-04</internalNodes>
      <leafValues>
        -2.6696723699569702e-01 1.3921710848808289e-01</leafValues></_>
    <_>
      <internalNodes>
        0 -1 14899 2.5206482969224453e-03</internalNodes>
      <leafValues>
        9.2711634933948517e-02 -3.1094676256179810e-01</leafValues></_>
    <_>
      <internalNodes>
        0 -1 35581 8.9503824710845947e-02</internalNodes>
      <leafValues>
        1.0143210738897324e-01 -3.2574704289436340e-01</leafValues></_>
    <_>
      <internalNodes>
        0 -1 60808 -1.7152229323983192e-02</internalNodes>
      <leafValues>
        -4.9519836902618408e-01 7.0505686104297638e-02</leafValues></_>
    <_>
      <internalNodes>
        0 -1 30268 -1.8285151571035385e-02</internalNodes>
      <leafValues>
        7.7562600374221802e-01 -5.2308980375528336e-02</leafValues></_>
    <_>
      <internalNodes>
        0 -1 38653 -1.4119140803813934e-02</internalNodes>
      <leafValues>
        1.6738303005695343e-01 -2.1366325020790100e-01</leafValues></_>
    <_>
      <internalNodes>
        0 -1 19134 5.9207649901509285e-03</internalNodes>
      <leafValues>
        -1.2685339152812958e-01 2.5630435347557068e-01</leafValues></_>
    <_>
      <internalNodes>
        0 -1 18677 9.5111072063446045e-02</internalNodes>
      <leafValues>
        9.8290964961051941e-02 -3.4628367424011230e-01</leafValues></_>
    <_>
      <internalNodes>
        0 -1 15334 -2.7382851112633944e-03</internalNodes>
      <leafValues>
        1.8396025896072388e-01 -1.7108301818370819e-01</leafValues></_>
    <_>
      <internalNodes>
        0 -1 77815 -2.2598661482334137e-02</internalNodes>
      <leafValues>
        6.4907443523406982e-01 -5.2611596882343292e-02</leafValues></_>
    <_>
      <internalNodes>
        0 -1 58595 1.7856670310720801e-03</internalNodes>
      <leafValues>
        7.4800178408622742e-02 -5.0257849693298340e-01</leafValues></_>
    <_>
      <internalNodes>
        0 -1 746 1.3852375559508801e-03</internalNodes>
      <leafValues>
        9.5792628824710846e-02 -3.0631741881370544e-01</leafValues></_>
    <_>
      <internalNodes>
        0 -1 33201 1.9385159248486161e-05</internalNodes>
      <leafValues>
        -1.8019726872444153e-01 1.7537820339202881e-01</leafValues></_>
    <_>
      <internalNodes>
        0 -1 31804 -3.0955359339714050e-02</internalNodes>
      <leafValues>
        -4.2807543277740479e-01 6.9336839020252228e-02</leafValues></_>
    <_>
      <internalNodes>
        0 -1 78459 4.4138991506770253e-04</internalNodes>
      <leafValues>
        9.3541227281093597e-02 -3.1702929735183716e-01</leafValues></_>
    <_>
      <internalNodes>
        0 -1 19419 1.2823717668652534e-02</internalNodes>
      <leafValues>
        -1.0091792792081833e-01 3.1429257988929749e-01</leafValues></_>
    <_>
      <internalNodes>
        0 -1 54049 4.9634734750725329e-05</internalNodes>
      <leafValues>
        -1.7811895906925201e-01 1.6784119606018066e-01</leafValues></_>
    <_>
      <internalNodes>
        0 -1 21585 4.3778762221336365e-02</internalNodes>
      <leafValues>
        -6.5041452646255493e-02 4.4442722201347351e-01</leafValues></_>
    <_>
      <internalNodes>
        0 -1 47198 1.2906562536954880e-02</internalNodes>
      <leafValues>
        -1.2929400801658630e-01 2.3464213311672211e-01</leafValues></_>
    <_>
      <internalNodes>
        0 -1 33791 2.9288288205862045e-02</internalNodes>
      <leafValues>
        -9.5595352351665497e-02 3.2872509956359863e-01</leafValues></_>
    <_>
      <internalNodes>
        0 -1 59792 3.7408359348773956e-02</internalNodes>
      <leafValues>
        -1.0449644178152084e-01 2.9742306470870972e-01</leafValues></_>
    <_>
      <internalNodes>
        0 -1 59414 -4.1028046980500221e-03</internalNodes>
      <leafValues>
        1.9635906815528870e-01 -2.0561677217483521e-01</leafValues></_>
    <_>
      <internalNodes>
        0 -1 8631 -2.9994426295161247e-02</internalNodes>
      <leafValues>
        2.4264541268348694e-01 -1.4104425907135010e-01</leafValues></_>
    <_>
      <internalNodes>
        0 -1 68706 6.8338029086589813e-04</internalNodes>
      <leafValues>
        1.0453251004219055e-01 -3.3131229877471924e-01</leafValues></_>
    <_>
      <internalNodes>
        0 -1 78314 -3.4655752824619412e-04</internalNodes>
      <leafValues>
        -2.6372316479682922e-01 1.1641082912683487e-01</leafValues></_>
    <_>
      <internalNodes>
        0 -1 32162 3.0009853653609753e-03</internalNodes>
      <leafValues>
        -1.4360573887825012e-01 2.3820251226425171e-01</leafValues></_>
    <_>
      <internalNodes>
        0 -1 56947 1.9950339570641518e-02</internalNodes>
      <leafValues>
        -4.6217009425163269e-02 6.6830861568450928e-01</leafValues></_>
    <_>
      <internalNodes>
        0 -1 5593 3.3141642808914185e-02</internalNodes>
      <leafValues>
        6.5963864326477051e-02 -5.0723624229431152e-01</leafValues></_>
    <_>
      <internalNodes>
        0 -1 36939 -1.3135401532053947e-02</internalNodes>
      <leafValues>
        4.4706833362579346e-01 -6.8750984966754913e-02</leafValues></_>
    <_>
      <internalNodes>
        0 -1 7263 1.4500622637569904e-02</internalNodes>
      <leafValues>
        6.2960959970951080e-02 -5.3501492738723755e-01</leafValues></_>
    <_>
      <internalNodes>
        0 -1 45536 1.3627300038933754e-02</internalNodes>
      <leafValues>
        -7.6221346855163574e-02 4.2361462116241455e-01</leafValues></_>
    <_>
      <internalNodes>
        0 -1 32036 2.6628486812114716e-02</internalNodes>
      <leafValues>
        -8.5137061774730682e-02 3.3525380492210388e-01</leafValues></_>
    <_>
      <internalNodes>
        0 -1 20986 -8.7722435593605042e-02</internalNodes>
      <leafValues>
        3.9487126469612122e-01 -8.0015100538730621e-02</leafValues></_></weakClassifiers></stage8>
</opencv_storage>
