<?xml version="1.0"?>
<opencv_storage>
<stage16>
  <maxWeakCount>58</maxWeakCount>
  <stageThreshold>-9.8609727621078491e-01</stageThreshold>
  <weakClassifiers>
    <_>
      <internalNodes>
        0 -1 41659 8.4844693541526794e-02</internalNodes>
      <leafValues>
        -2.3725835606455803e-02 7.2111552953720093e-01</leafValues></_>
    <_>
      <internalNodes>
        0 -1 38570 -3.2230742275714874e-02</internalNodes>
      <leafValues>
        -4.1012606024742126e-01 7.0216402411460876e-02</leafValues></_>
    <_>
      <internalNodes>
        0 -1 21751 6.0160900466144085e-04</internalNodes>
      <leafValues>
        1.0476274788379669e-01 -3.5148268938064575e-01</leafValues></_>
    <_>
      <internalNodes>
        0 -1 21751 -2.4340214440599084e-04</internalNodes>
      <leafValues>
        -3.0567800998687744e-01 1.4206255972385406e-01</leafValues></_>
    <_>
      <internalNodes>
        0 -1 38825 1.6551826149225235e-02</internalNodes>
      <leafValues>
        1.3971711695194244e-01 -3.4345102310180664e-01</leafValues></_>
    <_>
      <internalNodes>
        0 -1 54631 1.6716390382498503e-03</internalNodes>
      <leafValues>
        5.2680745720863342e-02 -3.9297410845756531e-01</leafValues></_>
    <_>
      <internalNodes>
        0 -1 6035 -1.3546197116374969e-01</internalNodes>
      <leafValues>
        3.5172298550605774e-01 -6.9182269275188446e-02</leafValues></_>
    <_>
      <internalNodes>
        0 -1 2810 -4.6504117548465729e-02</internalNodes>
      <leafValues>
        4.5563155412673950e-01 -7.3513343930244446e-02</leafValues></_>
    <_>
      <internalNodes>
        0 -1 7602 3.9739340543746948e-02</internalNodes>
      <leafValues>
        -5.6011926382780075e-02 8.6026746034622192e-01</leafValues></_>
    <_>
      <internalNodes>
        0 -1 62417 2.9326514340937138e-03</internalNodes>
      <leafValues>
        1.0452282428741455e-01 -3.2602390646934509e-01</leafValues></_>
    <_>
      <internalNodes>
        0 -1 28054 3.8481678348034620e-03</internalNodes>
      <leafValues>
        5.1957644522190094e-02 -6.3108795881271362e-01</leafValues></_>
    <_>
      <internalNodes>
        0 -1 50233 -8.3231385797262192e-03</internalNodes>
      <leafValues>
        3.6568695306777954e-01 -8.9184448122978210e-02</leafValues></_>
    <_>
      <internalNodes>
        0 -1 78441 4.1969330050051212e-04</internalNodes>
      <leafValues>
        9.9515140056610107e-02 -2.7745032310485840e-01</leafValues></_>
    <_>
      <internalNodes>
        0 -1 78441 -2.6807302492670715e-04</internalNodes>
      <leafValues>
        -2.4932001531124115e-01 9.2227175831794739e-02</leafValues></_>
    <_>
      <internalNodes>
        0 -1 75593 4.9816723912954330e-03</internalNodes>
      <leafValues>
        -5.5655740201473236e-02 3.7582257390022278e-01</leafValues></_>
    <_>
      <internalNodes>
        0 -1 50907 -5.0845164805650711e-03</internalNodes>
      <leafValues>
        -3.1602844595909119e-01 7.5411595404148102e-02</leafValues></_>
    <_>
      <internalNodes>
        0 -1 30982 -1.0938275605440140e-02</internalNodes>
      <leafValues>
        -2.0479598641395569e-01 1.1345911026000977e-01</leafValues></_>
    <_>
      <internalNodes>
        0 -1 62056 4.3839405407197773e-05</internalNodes>
      <leafValues>
        -1.6806666553020477e-01 1.4857013523578644e-01</leafValues></_>
    <_>
      <internalNodes>
        0 -1 42322 1.3880873098969460e-02</internalNodes>
      <leafValues>
        1.0706587880849838e-01 -2.5267693400382996e-01</leafValues></_>
    <_>
      <internalNodes>
        0 -1 11560 8.0205574631690979e-03</internalNodes>
      <leafValues>
        -8.5501305758953094e-02 3.2384920120239258e-01</leafValues></_>
    <_>
      <internalNodes>
        0 -1 14468 2.4235819000750780e-04</internalNodes>
      <leafValues>
        9.9023953080177307e-02 -2.2598457336425781e-01</leafValues></_>
    <_>
      <internalNodes>
        0 -1 58437 2.7827809099107981e-03</internalNodes>
      <leafValues>
        7.0496141910552979e-02 -3.6972621083259583e-01</leafValues></_>
    <_>
      <internalNodes>
        0 -1 66016 -6.8785967305302620e-03</internalNodes>
      <leafValues>
        1.7551971971988678e-01 -1.2654085457324982e-01</leafValues></_>
    <_>
      <internalNodes>
        0 -1 73598 -1.1630149558186531e-02</internalNodes>
      <leafValues>
        5.1359981298446655e-01 -5.6670445948839188e-02</leafValues></_>
    <_>
      <internalNodes>
        0 -1 6917 9.3242264119908214e-04</internalNodes>
      <leafValues>
        7.9375214874744415e-02 -3.1558620929718018e-01</leafValues></_>
    <_>
      <internalNodes>
        0 -1 50426 3.8443868979811668e-03</internalNodes>
      <leafValues>
        -1.0671281814575195e-01 2.3319204151630402e-01</leafValues></_>
    <_>
      <internalNodes>
        0 -1 23282 -1.0253811255097389e-02</internalNodes>
      <leafValues>
        -3.8158187270164490e-01 5.8390133082866669e-02</leafValues></_>
    <_>
      <internalNodes>
        0 -1 22268 3.1712315976619720e-02</internalNodes>
      <leafValues>
        -3.7233784794807434e-02 6.3997906446456909e-01</leafValues></_>
    <_>
      <internalNodes>
        0 -1 78349 2.3187603801488876e-03</internalNodes>
      <leafValues>
        1.0898762941360474e-01 -2.2426462173461914e-01</leafValues></_>
    <_>
      <internalNodes>
        0 -1 1410 6.7546218633651733e-02</internalNodes>
      <leafValues>
        -1.3197872042655945e-01 1.8956139683723450e-01</leafValues></_>
    <_>
      <internalNodes>
        0 -1 76681 -8.5618946468457580e-04</internalNodes>
      <leafValues>
        -1.7948041856288910e-01 1.3892783224582672e-01</leafValues></_>
    <_>
      <internalNodes>
        0 -1 2525 -2.1841570734977722e-02</internalNodes>
      <leafValues>
        -3.2563939690589905e-01 6.1309359967708588e-02</leafValues></_>
    <_>
      <internalNodes>
        0 -1 3372 -6.4854957163333893e-03</internalNodes>
      <leafValues>
        -7.9586076736450195e-01 2.5476003065705299e-02</leafValues></_>
    <_>
      <internalNodes>
        0 -1 43500 1.4887223020195961e-02</internalNodes>
      <leafValues>
        -6.5711610019207001e-02 3.4520766139030457e-01</leafValues></_>
    <_>
      <internalNodes>
        0 -1 78420 -8.9844921603798866e-04</internalNodes>
      <leafValues>
        -3.2565331459045410e-01 6.4848586916923523e-02</leafValues></_>
    <_>
      <internalNodes>
        0 -1 1616 1.3087065890431404e-02</internalNodes>
      <leafValues>
        -8.0283910036087036e-02 2.6832726597785950e-01</leafValues></_>
    <_>
      <internalNodes>
        0 -1 2159 -1.8274843692779541e-02</internalNodes>
      <leafValues>
        3.8561701774597168e-01 -5.1523536443710327e-02</leafValues></_>
    <_>
      <internalNodes>
        0 -1 7443 -7.3711991310119629e-02</internalNodes>
      <leafValues>
        5.1358586549758911e-01 -4.2377021163702011e-02</leafValues></_>
    <_>
      <internalNodes>
        0 -1 71197 -2.0872398745268583e-03</internalNodes>
      <leafValues>
        -4.8977115750312805e-01 5.3621605038642883e-02</leafValues></_>
    <_>
      <internalNodes>
        0 -1 48187 1.5710625797510147e-02</internalNodes>
      <leafValues>
        -5.7884700596332550e-02 4.0627565979957581e-01</leafValues></_>
    <_>
      <internalNodes>
        0 -1 70186 -8.2483580335974693e-03</internalNodes>
      <leafValues>
        -9.0059417486190796e-01 2.6187604293227196e-02</leafValues></_>
    <_>
      <internalNodes>
        0 -1 71282 2.3846749216318130e-02</internalNodes>
      <leafValues>
        -6.4093187451362610e-02 4.5699334144592285e-01</leafValues></_>
    <_>
      <internalNodes>
        0 -1 73579 4.9791242927312851e-03</internalNodes>
      <leafValues>
        1.1786062270402908e-01 -2.1117176115512848e-01</leafValues></_>
    <_>
      <internalNodes>
        0 -1 74364 1.7036072677001357e-05</internalNodes>
      <leafValues>
        -1.4699713885784149e-01 1.6972093284130096e-01</leafValues></_>
    <_>
      <internalNodes>
        0 -1 69494 -6.0787938535213470e-02</internalNodes>
      <leafValues>
        3.6314204335212708e-01 -6.4918935298919678e-02</leafValues></_>
    <_>
      <internalNodes>
        0 -1 53209 2.7588964439928532e-04</internalNodes>
      <leafValues>
        -1.3163907825946808e-01 1.6519227623939514e-01</leafValues></_>
    <_>
      <internalNodes>
        0 -1 53210 -3.2902490347623825e-03</internalNodes>
      <leafValues>
        -6.5558731555938721e-01 3.0652778223156929e-02</leafValues></_>
    <_>
      <internalNodes>
        0 -1 77673 4.1707360651344061e-04</internalNodes>
      <leafValues>
        1.1372090876102448e-01 -2.0317558944225311e-01</leafValues></_>
    <_>
      <internalNodes>
        0 -1 29260 -4.0253680199384689e-02</internalNodes>
      <leafValues>
        6.6287249326705933e-01 -3.6845389753580093e-02</leafValues></_>
    <_>
      <internalNodes>
        0 -1 57155 1.0256498353555799e-03</internalNodes>
      <leafValues>
        -1.0872787982225418e-01 2.1102395653724670e-01</leafValues></_>
    <_>
      <internalNodes>
        0 -1 56674 -2.0238842989783734e-04</internalNodes>
      <leafValues>
        2.0160764455795288e-01 -1.2605540454387665e-01</leafValues></_>
    <_>
      <internalNodes>
        0 -1 65742 2.0054157357662916e-03</internalNodes>
      <leafValues>
        4.9215462058782578e-02 -4.3362537026405334e-01</leafValues></_>
    <_>
      <internalNodes>
        0 -1 65591 9.1315060853958130e-03</internalNodes>
      <leafValues>
        3.8087353110313416e-02 -5.0708997249603271e-01</leafValues></_>
    <_>
      <internalNodes>
        0 -1 53442 7.5438016210682690e-05</internalNodes>
      <leafValues>
        -1.6596947610378265e-01 1.2566654384136200e-01</leafValues></_>
    <_>
      <internalNodes>
        0 -1 34295 1.5837638638913631e-03</internalNodes>
      <leafValues>
        -1.7654371261596680e-01 1.1612673848867416e-01</leafValues></_>
    <_>
      <internalNodes>
        0 -1 35900 8.1766217947006226e-02</internalNodes>
      <leafValues>
        4.0046811103820801e-02 -4.9035090208053589e-01</leafValues></_>
    <_>
      <internalNodes>
        0 -1 0 -3.5407216637395322e-04</internalNodes>
      <leafValues>
        -2.3773023486137390e-01 8.3049669861793518e-02</leafValues></_>
    <_>
      <internalNodes>
        0 -1 53446 7.3860646807588637e-05</internalNodes>
      <leafValues>
        -1.3330163061618805e-01 1.6557689011096954e-01</leafValues></_></weakClassifiers></stage16>
</opencv_storage>
